entropy dim 1,entropy dim 2,entropy dim 3,entropy dim 4,entropy dim 5,entropy dim 6,entropy dim 7,entropy dim 8,entropy dim 9,entropy dim 10,entropy dim 11,entropy dim 12,entropy dim 13,entropy dim 14,entropy dim 15,entropy dim 16,entropy dim 17,entropy dim 18,entropy dim 19,entropy dim 20,entropy dim 21,entropy dim 22,entropy dim 23,entropy dim 24,entropy dim 25,entropy dim 26,entropy dim 27,entropy dim 28,mu dim 1,mu dim 2,mu dim 3,mu dim 4,mu dim 5,mu dim 6,mu dim 7,mu dim 8,mu dim 9,mu dim 10,mu dim 11,mu dim 12,mu dim 13,mu dim 14,mu dim 15,mu dim 16,mu dim 17,mu dim 18,mu dim 19,mu dim 20,mu dim 21,mu dim 22,mu dim 23,mu dim 24,mu dim 25,mu dim 26,mu dim 27,mu dim 28,logvar of mu dim 1,logvar of mu dim 2,logvar of mu dim 3,logvar of mu dim 4,logvar of mu dim 5,logvar of mu dim 6,logvar of mu dim 7,logvar of mu dim 8,logvar of mu dim 9,logvar of mu dim 10,logvar of mu dim 11,logvar of mu dim 12,logvar of mu dim 13,logvar of mu dim 14,logvar of mu dim 15,logvar of mu dim 16,logvar of mu dim 17,logvar of mu dim 18,logvar of mu dim 19,logvar of mu dim 20,logvar of mu dim 21,logvar of mu dim 22,logvar of mu dim 23,logvar of mu dim 24,logvar of mu dim 25,logvar of mu dim 26,logvar of mu dim 27,logvar of mu dim 28,logvar dim 1,logvar dim 2,logvar dim 3,logvar dim 4,logvar dim 5,logvar dim 6,logvar dim 7,logvar dim 8,logvar dim 9,logvar dim 10,logvar dim 11,logvar dim 12,logvar dim 13,logvar dim 14,logvar dim 15,logvar dim 16,logvar dim 17,logvar dim 18,logvar dim 19,logvar dim 20,logvar dim 21,logvar dim 22,logvar dim 23,logvar dim 24,logvar dim 25,logvar dim 26,logvar dim 27,logvar dim 28,perf recon rate,recon rate,perf prefix len,validity,stability,token loss,length
5.339,5.396,5.505,5.208,5.217,5.389,5.384,5.413,5.585,5.459,5.44,5.444,5.445,5.422,5.34,5.229,5.471,5.484,5.162,5.371,5.255,5.413,5.213,5.38,5.532,5.335,5.283,5.386,1.035,1.036,0.336,0.356,0.253,-0.77,0.156,-1.329,-0.294,1.558,1.077,0.851,-1.557,-1.001,-0.077,-0.643,-0.422,-0.467,-0.778,-0.732,-0.026,0.145,1.892,-0.274,0.999,-0.548,1.497,1.037,-0.495,-0.379,0.007,-0.852,-0.952,-0.339,-0.324,-0.381,0.135,-0.2,-0.172,-0.162,-0.186,-0.263,-0.424,-0.745,-0.166,-0.137,-0.965,-0.392,-0.761,-0.409,-0.781,-0.299,0.249,-0.444,-0.574,-0.564,-6.988,-6.735,-7.234,-6.648,-7.211,-7.13,-7.158,-7.052,-7.412,-7.042,-7.313,-7.428,-7.056,-6.918,-6.88,-7.099,-7.023,-7.396,-7.068,-6.562,-7.141,-7.388,-6.956,-7.138,-6.824,-7.437,-7.435,-6.921,0.712,0.86,17.576,0.998,0.018,22.085,38.688
5.342,5.386,5.449,5.324,5.273,5.408,5.328,5.409,5.497,5.414,5.419,5.426,5.438,5.426,5.369,5.357,5.417,5.451,5.258,5.412,5.293,5.381,5.277,5.426,5.414,5.415,5.374,5.37,0.714,0.638,0.136,0.279,0.023,-0.426,0.13,-0.756,-0.24,0.738,0.602,0.486,-0.805,-0.623,0.092,-0.385,-0.259,-0.427,-0.518,-0.415,-0.095,0.145,0.943,-0.28,0.663,-0.283,0.783,0.719,-0.491,-0.229,-0.155,-0.576,-0.705,-0.271,-0.34,-0.368,-0.02,-0.264,-0.094,-0.208,-0.151,-0.236,-0.402,-0.396,-0.236,-0.164,-0.66,-0.169,-0.549,-0.297,-0.64,-0.313,-0.028,-0.219,-0.438,-0.339,-5.503,-5.58,-5.986,-5.444,-5.679,-6.034,-5.768,-6.133,-6.273,-5.83,-5.858,-6.062,-6.132,-6.177,-5.538,-5.563,-5.839,-5.995,-5.755,-5.305,-5.53,-5.659,-5.605,-6.011,-5.921,-5.906,-6.41,-5.825,0.82,0.914,18.311,0.991,0.066,15.387,34.888
5.387,5.447,5.485,5.384,5.431,5.438,5.375,5.481,5.485,5.394,5.441,5.468,5.429,5.437,5.392,5.375,5.452,5.435,5.364,5.481,5.416,5.381,5.314,5.38,5.481,5.405,5.445,5.377,0.531,0.541,-0.044,0.23,0.063,-0.256,0.092,-0.498,-0.157,0.472,0.447,0.366,-0.455,-0.568,0.062,-0.266,-0.234,-0.254,-0.475,-0.269,-0.164,0.17,0.659,-0.057,0.461,-0.212,0.704,0.416,-0.417,-0.076,-0.138,-0.299,-0.331,-0.199,-0.262,-0.228,-0.013,-0.191,-0.031,-0.076,-0.105,-0.103,-0.246,-0.215,-0.105,-0.105,-0.375,-0.11,-0.314,-0.208,-0.495,-0.278,-0.018,-0.117,-0.253,-0.187,-4.773,-4.71,-5.134,-4.579,-4.536,-5.022,-5.062,-5.296,-5.534,-4.997,-5.075,-5.344,-5.344,-5.068,-4.625,-4.633,-4.99,-5.25,-5.073,-4.472,-4.965,-4.946,-4.576,-5.183,-5.022,-4.962,-5.233,-5.076,0.894,0.942,15.83,0.997,0.092,12.164,34.543
5.34,5.515,5.421,5.406,5.416,5.396,5.425,5.446,5.507,5.434,5.456,5.477,5.487,5.481,5.418,5.438,5.493,5.431,5.405,5.422,5.396,5.428,5.31,5.423,5.46,5.452,5.412,5.452,0.394,0.399,-0.091,0.118,0.018,-0.305,0.027,-0.412,-0.105,0.339,0.353,0.16,-0.458,-0.488,0.032,-0.061,-0.162,-0.193,-0.327,-0.368,-0.177,0.207,0.407,0.007,0.404,-0.165,0.58,0.347,-0.356,0.004,-0.142,-0.331,-0.23,-0.21,-0.255,-0.199,0.023,-0.144,-0.033,-0.076,-0.058,-0.067,-0.216,-0.113,-0.054,-0.114,-0.298,-0.208,-0.228,-0.186,-0.479,-0.216,-0.046,-0.138,-0.193,-0.196,-4.011,-4.039,-5.042,-3.913,-4.216,-4.31,-4.517,-4.728,-5.067,-4.418,-4.708,-4.639,-4.542,-4.548,-4.152,-4.015,-4.421,-4.913,-4.468,-3.526,-4.078,-4.243,-3.54,-4.721,-4.459,-4.541,-4.674,-4.487,0.9,0.955,19.96,0.999,0.127,11.206,34.855
5.38,5.522,5.434,5.372,5.392,5.408,5.392,5.442,5.488,5.417,5.464,5.517,5.486,5.454,5.387,5.421,5.454,5.472,5.392,5.35,5.436,5.446,5.306,5.41,5.467,5.434,5.421,5.401,0.191,0.562,-0.066,0.105,0.074,-0.217,0.062,-0.388,-0.001,0.334,0.263,0.206,-0.378,-0.433,0.107,-0.09,-0.192,-0.112,-0.202,-0.087,-0.075,0.102,0.257,0.054,0.398,-0.191,0.427,0.267,-0.303,0.028,-0.127,-0.34,-0.222,-0.22,-0.266,-0.157,-0.027,-0.161,-0.031,-0.051,-0.015,-0.005,-0.197,-0.082,-0.057,-0.092,-0.267,-0.259,-0.211,-0.153,-0.529,-0.169,-0.017,-0.124,-0.143,-0.166,-3.879,-3.502,-4.93,-3.501,-3.885,-4.333,-3.936,-4.467,-4.756,-4.109,-4.393,-4.42,-4.178,-4.6,-3.381,-3.627,-4.238,-4.447,-4.074,-2.789,-3.74,-4.016,-2.308,-4.509,-4.075,-4.221,-4.293,-4.278,0.904,0.951,17.479,0.999,0.175,9.092,35.102
5.431,5.495,5.422,5.381,5.415,5.415,5.388,5.411,5.454,5.423,5.441,5.454,5.44,5.478,5.417,5.447,5.46,5.463,5.419,5.283,5.393,5.395,5.337,5.43,5.452,5.426,5.48,5.458,0.203,0.362,-0.106,0.011,0.026,-0.269,0.016,-0.318,0.046,0.268,0.209,0.202,-0.348,-0.438,0.103,-0.048,-0.123,-0.02,-0.127,-0.081,-0.137,0.041,0.173,0.015,0.267,-0.156,0.352,0.27,-0.263,0.012,-0.148,-0.404,-0.278,-0.226,-0.294,-0.175,-0.038,-0.114,-0.045,-0.049,-0.009,0.018,-0.117,-0.117,-0.053,-0.101,-0.267,-0.493,-0.264,-0.169,-0.428,-0.176,-0.02,-0.135,-0.159,-0.138,-3.608,-3.069,-4.534,-2.79,-3.426,-3.924,-3.746,-4.183,-4.432,-3.547,-4.132,-4.096,-4.2,-4.263,-2.727,-2.844,-3.927,-4.336,-3.68,-1.721,-3.443,-3.638,-1.764,-4.35,-3.858,-3.797,-3.995,-3.872,0.912,0.959,19.386,0.999,0.224,7.792,34.269
5.431,5.446,5.448,5.405,5.413,5.417,5.408,5.407,5.532,5.462,5.483,5.5,5.478,5.479,5.346,5.397,5.465,5.472,5.424,5.194,5.431,5.377,5.321,5.416,5.503,5.419,5.508,5.47,0.113,0.275,-0.186,0.014,0.085,-0.337,0.028,-0.36,0.092,0.314,0.339,0.114,-0.245,-0.379,0.153,0.052,-0.071,-0.037,-0.126,-0.109,-0.162,-0.004,0.194,0.036,0.181,-0.09,0.288,0.209,-0.22,-0.026,-0.109,-0.414,-0.339,-0.241,-0.246,-0.216,-0.076,-0.131,-0.018,-0.029,-0.001,0.004,-0.181,-0.152,-0.055,-0.106,-0.23,-0.667,-0.272,-0.17,-0.495,-0.168,0.024,-0.115,-0.107,-0.116,-3.596,-2.929,-4.783,-2.085,-3.429,-3.85,-3.401,-4.377,-4.493,-3.361,-3.963,-4.252,-4.086,-4.356,-2.213,-2.692,-3.73,-4.354,-3.414,-1.327,-3.198,-3.461,-1.432,-4.341,-3.586,-3.595,-3.822,-3.988,0.922,0.963,19.205,1.0,0.277,6.669,34.449
5.431,5.476,5.46,5.352,5.349,5.415,5.457,5.419,5.423,5.477,5.51,5.454,5.466,5.519,5.335,5.355,5.464,5.434,5.377,5.134,5.404,5.378,5.256,5.457,5.493,5.456,5.441,5.462,-0.006,0.222,-0.272,-0.19,0.121,-0.26,-0.058,-0.33,0.116,0.167,0.246,0.084,-0.185,-0.387,0.212,-0.15,0.028,-0.0,-0.081,-0.02,-0.224,0.031,-0.085,0.101,0.137,-0.208,0.238,0.25,-0.144,-0.061,-0.063,-0.469,-0.377,-0.211,-0.18,-0.189,-0.084,-0.129,-0.018,-0.05,0.022,0.013,-0.198,-0.148,-0.039,-0.111,-0.23,-0.858,-0.288,-0.212,-0.554,-0.162,0.042,-0.13,-0.085,-0.142,-3.483,-2.778,-4.671,-1.635,-3.135,-3.832,-3.501,-4.119,-4.53,-3.151,-3.827,-4.182,-4.114,-4.315,-1.811,-2.237,-3.718,-4.48,-3.273,-0.985,-3.069,-3.197,-1.17,-4.405,-3.62,-3.515,-3.712,-3.89,0.914,0.959,18.628,1.0,0.314,5.93,34.654
5.437,5.48,5.448,5.299,5.367,5.473,5.474,5.394,5.459,5.42,5.445,5.482,5.526,5.518,5.303,5.356,5.44,5.463,5.42,5.042,5.383,5.386,5.248,5.423,5.496,5.447,5.389,5.463,-0.031,0.135,-0.181,-0.136,0.13,-0.257,-0.014,-0.23,0.148,0.093,0.216,0.042,-0.022,-0.416,-0.016,-0.072,-0.012,0.049,-0.074,-0.023,-0.192,-0.122,-0.035,0.135,0.092,-0.114,0.195,0.2,-0.138,-0.117,-0.1,-0.51,-0.405,-0.236,-0.197,-0.2,-0.127,-0.174,-0.038,-0.038,0.026,-0.012,-0.271,-0.204,-0.045,-0.158,-0.176,-0.983,-0.31,-0.259,-0.677,-0.188,-0.006,-0.167,-0.112,-0.135,-3.551,-2.504,-4.575,-1.546,-3.264,-3.903,-3.43,-4.166,-4.527,-3.159,-3.887,-4.016,-4.029,-4.247,-1.382,-2.1,-3.715,-4.336,-3.0,-0.941,-3.038,-2.714,-1.186,-4.287,-3.561,-3.405,-3.841,-3.789,0.91,0.959,19.067,1.0,0.367,4.717,34.283
5.425,5.414,5.475,5.297,5.356,5.434,5.418,5.395,5.477,5.424,5.419,5.491,5.493,5.488,5.264,5.294,5.482,5.468,5.422,5.002,5.332,5.361,5.213,5.437,5.463,5.396,5.459,5.471,-0.073,0.246,-0.349,-0.044,0.054,-0.139,-0.103,-0.19,0.191,0.062,0.222,0.024,-0.069,-0.224,-0.089,-0.03,0.016,0.004,0.004,0.049,-0.076,-0.105,-0.062,0.137,-0.006,-0.011,0.195,0.159,-0.086,-0.119,-0.079,-0.448,-0.418,-0.169,-0.189,-0.198,-0.093,-0.122,-0.046,-0.017,0.028,0.006,-0.332,-0.278,-0.074,-0.148,-0.173,-1.059,-0.294,-0.207,-0.685,-0.172,-0.009,-0.173,-0.066,-0.08,-3.359,-2.59,-4.839,-1.398,-3.126,-3.956,-3.273,-4.317,-4.723,-3.002,-3.844,-4.163,-4.108,-4.49,-1.172,-1.923,-3.653,-4.431,-2.497,-0.708,-2.884,-2.322,-1.079,-4.47,-3.654,-3.517,-3.782,-3.772,0.91,0.957,18.289,1.0,0.367,4.785,33.898
5.464,5.409,5.498,5.297,5.364,5.486,5.433,5.445,5.449,5.431,5.475,5.508,5.53,5.504,5.195,5.29,5.479,5.475,5.456,4.956,5.394,5.439,5.243,5.451,5.505,5.435,5.484,5.466,0.006,0.038,-0.31,-0.037,0.001,-0.106,-0.18,-0.183,0.238,0.034,0.256,0.012,0.166,-0.242,0.087,-0.044,0.111,0.103,-0.056,0.087,-0.081,-0.056,0.049,0.086,0.057,-0.034,0.197,0.147,-0.083,-0.183,-0.031,-0.505,-0.362,-0.139,-0.162,-0.143,-0.061,-0.167,-0.026,0.024,0.097,0.035,-0.448,-0.304,-0.033,-0.117,-0.143,-1.195,-0.224,-0.23,-0.726,-0.15,-0.04,-0.164,-0.05,-0.1,-3.398,-2.252,-4.707,-1.238,-2.638,-4.037,-3.129,-4.18,-4.55,-2.929,-3.727,-4.078,-3.933,-4.385,-0.869,-1.717,-3.566,-4.425,-2.303,-0.53,-2.874,-2.165,-0.896,-4.288,-3.642,-3.518,-3.678,-3.876,0.932,0.968,19.294,1.0,0.39,4.091,33.84
5.453,5.385,5.452,5.303,5.315,5.463,5.389,5.447,5.495,5.414,5.46,5.519,5.503,5.501,5.189,5.246,5.417,5.443,5.388,4.925,5.348,5.434,5.192,5.5,5.483,5.437,5.428,5.437,-0.133,-0.013,-0.328,-0.123,-0.025,-0.051,-0.109,-0.052,0.252,-0.054,0.211,-0.061,0.124,-0.181,-0.013,0.067,0.058,0.09,-0.046,-0.104,-0.053,-0.208,0.032,0.129,0.032,-0.028,0.165,0.073,-0.118,-0.221,-0.067,-0.532,-0.439,-0.147,-0.235,-0.17,-0.096,-0.198,-0.061,-0.01,0.077,0.02,-0.479,-0.397,-0.133,-0.169,-0.233,-1.299,-0.269,-0.275,-0.81,-0.19,-0.095,-0.179,-0.082,-0.105,-3.487,-2.16,-4.702,-1.031,-2.636,-3.967,-2.745,-4.066,-4.615,-2.904,-3.529,-4.193,-3.881,-4.232,-1.017,-1.663,-3.361,-4.323,-2.01,-0.574,-2.778,-1.914,-0.823,-4.234,-3.362,-3.268,-3.801,-3.551,0.926,0.968,19.541,1.0,0.412,4.067,33.859
5.438,5.432,5.476,5.264,5.368,5.426,5.397,5.452,5.471,5.418,5.478,5.483,5.542,5.503,5.16,5.22,5.462,5.478,5.373,4.933,5.412,5.429,5.195,5.482,5.451,5.391,5.424,5.428,-0.114,-0.087,-0.367,-0.278,-0.001,-0.051,-0.081,-0.111,0.272,-0.075,0.182,-0.053,0.167,-0.17,0.057,-0.083,0.157,0.058,-0.104,-0.011,0.009,-0.136,-0.003,0.107,-0.054,-0.037,0.092,0.074,-0.051,-0.211,-0.035,-0.51,-0.366,-0.123,-0.197,-0.164,-0.048,-0.168,-0.023,0.046,0.096,0.037,-0.552,-0.435,-0.171,-0.134,-0.204,-1.31,-0.22,-0.254,-0.788,-0.148,-0.09,-0.156,-0.048,-0.1,-3.517,-2.182,-4.799,-1.152,-2.554,-4.052,-2.777,-4.153,-4.639,-2.754,-3.722,-4.235,-3.774,-4.291,-0.887,-1.459,-3.35,-4.541,-2.024,-0.484,-2.687,-1.816,-0.822,-4.283,-3.531,-3.462,-3.667,-3.753,0.942,0.973,18.552,1.0,0.413,4.119,33.843
5.464,5.377,5.472,5.209,5.359,5.453,5.44,5.439,5.538,5.466,5.471,5.477,5.501,5.51,5.081,5.23,5.436,5.439,5.363,4.88,5.456,5.379,5.137,5.444,5.49,5.416,5.448,5.457,-0.171,-0.017,-0.314,-0.172,0.039,-0.048,0.062,-0.126,0.284,0.049,0.235,-0.045,0.175,-0.158,-0.057,-0.057,0.071,0.071,-0.073,-0.057,0.037,-0.1,-0.189,0.085,-0.005,0.034,0.115,0.042,-0.061,-0.251,-0.026,-0.561,-0.43,-0.144,-0.202,-0.138,-0.056,-0.155,-0.006,0.038,0.122,0.029,-0.596,-0.438,-0.122,-0.145,-0.228,-1.436,-0.189,-0.264,-0.884,-0.17,-0.106,-0.129,-0.03,-0.085,-3.402,-1.905,-4.723,-1.117,-2.483,-4.052,-2.721,-4.256,-4.698,-2.678,-3.875,-4.255,-3.945,-4.324,-0.885,-1.462,-3.352,-4.562,-1.835,-0.353,-2.628,-1.59,-0.798,-4.301,-3.645,-3.505,-3.777,-3.731,0.926,0.964,18.459,1.0,0.432,3.704,33.899
5.45,5.423,5.495,5.251,5.308,5.407,5.409,5.413,5.465,5.426,5.504,5.507,5.51,5.502,5.065,5.184,5.459,5.423,5.359,4.868,5.404,5.354,5.11,5.455,5.485,5.413,5.508,5.458,-0.148,-0.104,-0.353,-0.086,-0.003,-0.08,-0.096,-0.04,0.312,-0.036,0.236,-0.021,0.204,-0.171,-0.1,0.038,0.051,0.09,-0.036,0.017,-0.01,-0.103,-0.083,0.061,0.038,0.031,0.101,0.073,-0.081,-0.294,-0.023,-0.509,-0.433,-0.142,-0.256,-0.163,-0.067,-0.153,0.0,0.031,0.161,0.017,-0.713,-0.483,-0.13,-0.168,-0.24,-1.441,-0.213,-0.306,-0.872,-0.191,-0.099,-0.156,-0.049,-0.108,-3.26,-1.99,-4.741,-1.035,-2.445,-4.136,-2.601,-4.215,-4.855,-2.679,-3.765,-4.25,-3.993,-4.425,-0.669,-1.437,-3.339,-4.608,-1.821,-0.425,-2.602,-1.48,-0.697,-4.399,-3.624,-3.44,-3.975,-3.736,0.94,0.973,19.2,1.0,0.439,3.717,33.892
5.433,5.39,5.512,5.193,5.333,5.423,5.428,5.436,5.501,5.372,5.475,5.496,5.515,5.48,4.94,5.218,5.447,5.441,5.357,4.844,5.42,5.336,5.137,5.457,5.459,5.369,5.47,5.482,-0.165,0.008,-0.303,-0.021,-0.019,-0.09,-0.009,-0.044,0.317,-0.041,0.218,-0.054,0.134,-0.102,-0.136,0.07,0.114,0.092,-0.021,-0.077,0.025,-0.054,0.004,0.078,-0.04,0.056,0.118,0.028,-0.041,-0.292,-0.014,-0.546,-0.421,-0.136,-0.212,-0.117,-0.035,-0.158,-0.039,0.037,0.109,0.03,-0.761,-0.495,-0.127,-0.151,-0.218,-1.49,-0.173,-0.299,-0.837,-0.165,-0.16,-0.169,-0.025,-0.104,-3.23,-1.739,-4.722,-0.868,-2.491,-4.046,-2.55,-4.271,-4.742,-2.492,-3.816,-4.309,-3.811,-4.293,-0.465,-1.367,-3.283,-4.393,-1.765,-0.368,-2.515,-1.407,-0.765,-4.247,-3.779,-3.385,-3.852,-3.541,0.942,0.97,17.414,1.0,0.421,3.829,33.862
5.416,5.352,5.438,5.228,5.327,5.502,5.373,5.497,5.447,5.471,5.47,5.464,5.49,5.44,5.003,5.225,5.397,5.428,5.378,4.775,5.428,5.338,5.099,5.433,5.455,5.446,5.485,5.436,-0.195,-0.111,-0.326,-0.041,-0.099,-0.056,-0.002,-0.045,0.286,-0.064,0.207,-0.056,0.153,-0.105,0.103,0.126,0.058,0.078,-0.171,-0.006,0.017,-0.086,-0.081,0.114,-0.07,0.072,0.08,0.064,-0.06,-0.355,-0.023,-0.583,-0.425,-0.123,-0.21,-0.132,-0.021,-0.163,-0.003,0.057,0.114,0.001,-0.791,-0.538,-0.172,-0.142,-0.26,-1.613,-0.188,-0.327,-0.922,-0.159,-0.16,-0.153,-0.033,-0.106,-3.347,-1.885,-4.745,-0.925,-2.391,-4.136,-2.536,-4.28,-4.837,-2.566,-3.834,-4.343,-3.802,-4.421,-0.691,-1.413,-3.148,-4.496,-1.678,-0.4,-2.461,-1.467,-0.803,-4.253,-3.737,-3.483,-3.672,-3.706,0.944,0.976,19.571,1.0,0.442,3.837,33.867
5.46,5.35,5.477,5.208,5.34,5.482,5.44,5.423,5.499,5.428,5.467,5.517,5.511,5.536,4.955,5.201,5.391,5.427,5.349,4.788,5.395,5.382,5.132,5.447,5.482,5.411,5.497,5.408,-0.089,-0.123,-0.359,-0.144,-0.056,-0.073,0.025,-0.03,0.329,0.006,0.185,-0.045,0.145,-0.098,0.053,0.055,0.102,0.092,-0.065,0.103,0.035,-0.222,0.072,0.044,-0.028,0.067,0.151,0.121,-0.039,-0.363,-0.007,-0.633,-0.436,-0.139,-0.225,-0.137,-0.012,-0.159,0.024,0.061,0.128,0.001,-0.874,-0.57,-0.175,-0.158,-0.282,-1.605,-0.203,-0.367,-0.919,-0.162,-0.173,-0.146,-0.015,-0.094,-3.325,-1.77,-4.839,-0.865,-2.238,-3.817,-2.357,-4.246,-4.799,-2.576,-3.727,-4.259,-3.676,-4.344,-0.631,-1.331,-3.105,-4.323,-1.583,-0.315,-2.411,-1.341,-0.629,-4.213,-3.797,-3.368,-3.591,-3.652,0.94,0.971,18.133,1.0,0.47,3.377,33.78
5.41,5.36,5.478,5.188,5.289,5.45,5.426,5.433,5.522,5.466,5.449,5.515,5.496,5.505,4.877,5.21,5.425,5.46,5.367,4.782,5.403,5.332,5.096,5.399,5.452,5.418,5.519,5.458,-0.175,-0.129,-0.317,-0.069,-0.001,-0.02,0.028,-0.013,0.372,0.011,0.288,-0.062,0.229,-0.079,0.013,0.024,0.083,0.077,-0.139,0.02,-0.019,-0.134,-0.012,0.086,-0.056,0.011,0.1,0.055,-0.063,-0.357,-0.03,-0.606,-0.441,-0.142,-0.198,-0.136,-0.024,-0.159,0.034,0.06,0.118,-0.001,-1.001,-0.576,-0.153,-0.174,-0.29,-1.567,-0.201,-0.37,-0.905,-0.165,-0.155,-0.141,-0.007,-0.111,-3.277,-1.765,-4.76,-0.856,-2.233,-4.073,-2.46,-4.282,-5.007,-2.555,-3.678,-4.325,-3.704,-4.498,-0.616,-1.282,-3.098,-4.432,-1.561,-0.381,-2.448,-1.155,-0.732,-4.222,-3.676,-3.504,-3.616,-3.785,0.95,0.978,19.32,1.0,0.467,3.491,33.796
5.485,5.368,5.504,5.189,5.262,5.44,5.442,5.482,5.472,5.418,5.495,5.498,5.504,5.527,4.879,5.159,5.383,5.455,5.314,4.777,5.373,5.309,5.066,5.449,5.444,5.443,5.444,5.425,-0.093,-0.05,-0.282,-0.072,-0.029,-0.066,0.047,-0.016,0.333,0.063,0.195,-0.044,0.182,-0.136,0.108,0.087,0.058,0.058,-0.004,-0.116,0.006,0.035,0.052,0.04,0.002,-0.021,0.107,0.067,0.012,-0.327,-0.025,-0.627,-0.438,-0.122,-0.208,-0.097,0.008,-0.163,0.013,0.061,0.101,-0.005,-1.054,-0.621,-0.163,-0.158,-0.282,-1.653,-0.191,-0.399,-0.982,-0.161,-0.157,-0.128,0.007,-0.089,-3.414,-1.786,-4.815,-0.804,-2.187,-3.99,-2.337,-4.261,-4.846,-2.715,-3.693,-4.283,-3.62,-4.468,-0.533,-1.253,-3.063,-4.367,-1.617,-0.342,-2.3,-1.199,-0.75,-4.162,-3.79,-3.491,-3.622,-3.681,0.948,0.974,17.615,1.0,0.468,3.445,33.809
